<?xml version="1.0"?>
<MethodSetup Method="MLP::MLP">
  <GeneralInfo>
    <Info name="TMVA Release" value="4.2.0 [262656]"/>
    <Info name="ROOT Release" value="5.34/36 [336420]"/>
    <Info name="Creator" value="lajoie"/>
    <Info name="Date" value="Thu Jul 11 14:16:35 2019"/>
    <Info name="Host" value="Linux rplay53.rcf.bnl.gov 3.10.0-693.11.6.el7.x86_64 #1 SMP Wed Jan 3 18:09:42 CST 2018 x86_64 x86_64 x86_64 GNU/Linux"/>
    <Info name="Dir" value="/gpfs/mnt/gpfs02/phenix/mpcex/lajoie/Run16/ENERGY_CAL/work/TMVA-v4.2.0/test"/>
    <Info name="Training events" value="20000"/>
    <Info name="TrainingTime" value="3.51964255e+03"/>
    <Info name="AnalysisType" value="Regression"/>
  </GeneralInfo>
  <Options>
    <Option name="NCycles" modified="Yes">20000</Option>
    <Option name="HiddenLayers" modified="Yes">N+20</Option>
    <Option name="NeuronType" modified="Yes">tanh</Option>
    <Option name="RandomSeed" modified="No">1</Option>
    <Option name="EstimatorType" modified="No">MSE</Option>
    <Option name="NeuronInputType" modified="No">sum</Option>
    <Option name="V" modified="Yes">False</Option>
    <Option name="VerbosityLevel" modified="No">Default</Option>
    <Option name="VarTransform" modified="Yes">Norm</Option>
    <Option name="H" modified="Yes">False</Option>
    <Option name="CreateMVAPdfs" modified="No">False</Option>
    <Option name="IgnoreNegWeightsInTraining" modified="No">False</Option>
    <Option name="TrainingMethod" modified="Yes">BFGS</Option>
    <Option name="LearningRate" modified="No">2.000000e-02</Option>
    <Option name="DecayRate" modified="No">1.000000e-02</Option>
    <Option name="TestRate" modified="Yes">6</Option>
    <Option name="EpochMonitoring" modified="No">False</Option>
    <Option name="Sampling" modified="Yes">3.000000e-01</Option>
    <Option name="SamplingEpoch" modified="Yes">8.000000e-01</Option>
    <Option name="SamplingImportance" modified="No">1.000000e+00</Option>
    <Option name="SamplingTraining" modified="No">True</Option>
    <Option name="SamplingTesting" modified="No">False</Option>
    <Option name="ResetStep" modified="No">50</Option>
    <Option name="Tau" modified="No">3.000000e+00</Option>
    <Option name="BPMode" modified="No">sequential</Option>
    <Option name="BatchSize" modified="No">-1</Option>
    <Option name="ConvergenceImprove" modified="Yes">1.000000e-06</Option>
    <Option name="ConvergenceTests" modified="Yes">15</Option>
    <Option name="UseRegulator" modified="Yes">False</Option>
    <Option name="UpdateLimit" modified="No">10000</Option>
    <Option name="CalculateErrors" modified="No">False</Option>
    <Option name="WeightRange" modified="No">1.000000e+00</Option>
  </Options>
  <Variables NVar="9">
    <Variable VarIndex="0" Expression="resum" Label="resum" Title="MPC-EX minipad energy sum" Unit="GeV" Internal="resum" Type="F" Min="5.02923271e-04" Max="7.12715745e-01"/>
    <Variable VarIndex="1" Expression="Cangle" Label="Cangle" Title="entry angle cosine" Unit="" Internal="Cangle" Type="F" Min="9.94688392e-01" Max="9.99066651e-01"/>
    <Variable VarIndex="2" Expression="insat" Label="insat" Title="number of saturated minipads" Unit=" " Internal="insat" Type="I" Min="0.00000000e+00" Max="2.50000000e+01"/>
    <Variable VarIndex="3" Expression="E33" Label="E33" Title="MPC 3x3 energy sum" Unit="GeV" Internal="E33" Type="F" Min="4.00035048e+00" Max="9.02258530e+01"/>
    <Variable VarIndex="4" Expression="in33" Label="in33" Title="valid towers in 3x3 energy sum" Unit=" " Internal="in33" Type="I" Min="8.00000000e+00" Max="9.00000000e+00"/>
    <Variable VarIndex="5" Expression="ifl" Label="ifl" Title="first layer" Unit=" " Internal="ifl" Type="I" Min="0.00000000e+00" Max="4.00000000e+00"/>
    <Variable VarIndex="6" Expression="vtx" Label="vtx" Title="event vertex" Unit="cm" Internal="vtx" Type="F" Min="-3.99981613e+01" Max="3.99877815e+01"/>
    <Variable VarIndex="7" Expression="ffx" Label="ffx" Title="event x position" Unit="cm" Internal="ffx" Type="F" Min="-2.00304947e+01" Max="1.93065052e+01"/>
    <Variable VarIndex="8" Expression="ffy" Label="ffy" Title="event y position" Unit="cm" Internal="ffy" Type="F" Min="-1.98847733e+01" Max="1.95197163e+01"/>
  </Variables>
  <Spectators NSpec="0"/>
  <Classes NClass="1">
    <Class Name="Regression" Index="0"/>
  </Classes>
  <Targets NTrgt="1">
    <Target TargetIndex="0" Expression="pE" Label="pE" Title="pE" Unit="" Internal="pE" Type="F" Min="5.22240639e+00" Max="9.99947739e+01"/>
  </Targets>
  <Transformations NTransformations="1">
    <Transform Name="Normalize">
      <Selection>
        <Input NInputs="10">
          <Input Type="Variable" Label="resum" Expression="resum"/>
          <Input Type="Variable" Label="Cangle" Expression="Cangle"/>
          <Input Type="Variable" Label="insat" Expression="insat"/>
          <Input Type="Variable" Label="E33" Expression="E33"/>
          <Input Type="Variable" Label="in33" Expression="in33"/>
          <Input Type="Variable" Label="ifl" Expression="ifl"/>
          <Input Type="Variable" Label="vtx" Expression="vtx"/>
          <Input Type="Variable" Label="ffx" Expression="ffx"/>
          <Input Type="Variable" Label="ffy" Expression="ffy"/>
          <Input Type="Target" Label="pE" Expression="pE"/>
        </Input>
        <Output NOutputs="10">
          <Output Type="Variable" Label="resum" Expression="resum"/>
          <Output Type="Variable" Label="Cangle" Expression="Cangle"/>
          <Output Type="Variable" Label="insat" Expression="insat"/>
          <Output Type="Variable" Label="E33" Expression="E33"/>
          <Output Type="Variable" Label="in33" Expression="in33"/>
          <Output Type="Variable" Label="ifl" Expression="ifl"/>
          <Output Type="Variable" Label="vtx" Expression="vtx"/>
          <Output Type="Variable" Label="ffx" Expression="ffx"/>
          <Output Type="Variable" Label="ffy" Expression="ffy"/>
          <Output Type="Target" Label="pE" Expression="pE"/>
        </Output>
      </Selection>
      <Class ClassIndex="0">
        <Ranges>
          <Range Index="0" Min="5.0292327068746090e-04" Max="7.1271574497222900e-01"/>
          <Range Index="1" Min="9.9468839168548584e-01" Max="9.9906665086746216e-01"/>
          <Range Index="2" Min="0.0000000000000000e+00" Max="2.5000000000000000e+01"/>
          <Range Index="3" Min="4.0003504753112793e+00" Max="9.0225852966308594e+01"/>
          <Range Index="4" Min="8.0000000000000000e+00" Max="9.0000000000000000e+00"/>
          <Range Index="5" Min="0.0000000000000000e+00" Max="4.0000000000000000e+00"/>
          <Range Index="6" Min="-3.9998161315917969e+01" Max="3.9987781524658203e+01"/>
          <Range Index="7" Min="-2.0030494689941406e+01" Max="1.9306505203247070e+01"/>
          <Range Index="8" Min="-1.9884773254394531e+01" Max="1.9519716262817383e+01"/>
          <Range Index="9" Min="5.2224063873291016e+00" Max="9.9994773864746094e+01"/>
        </Ranges>
      </Class>
    </Transform>
  </Transformations>
  <MVAPdfs/>
  <Weights>
    <Layout NLayers="3">
      <Layer Index="0" NNeurons="10">
        <Neuron NSynapses="29">
          -1.5993356402123455e+00 1.9674743349988693e+00 2.4404114801118557e+00 4.9027814383260587e-01 -3.1814726383026231e+00 -2.1421106151933103e+00 -6.3789251691388982e-01 -2.6390598655732045e-01 -9.2078415846975270e-01 -1.1940181398041303e+00 -7.1424779085428647e-01 -1.3061596981113754e-01 -5.2711178045478553e+00 1.2489680683348787e+00 -1.0512282393447370e+00 7.7559974488885730e-01 -4.2480701895174278e-01 1.3025055517575226e+00 1.3622576735292502e+00 3.4712160592385327e-01 -4.6654555638568690e-01 1.7347547724056249e+00 -4.6020778220911440e-01 2.7333139216996130e+00 3.2450916233261168e-01 -3.5156839828295533e-01 5.2564238979755515e+00 -2.2561143651610210e-01 -2.6288801974030185e+00 
        </Neuron>
        <Neuron NSynapses="29">
          -5.3809440065598280e-01 2.1246806724453777e+00 4.4606913411387668e+00 8.1173228118938190e-01 1.6874836505362509e+00 -1.6194979118409079e+00 -2.5290017343032236e+00 -1.0505312714447210e+00 1.6148332610158400e+00 -2.0088114237442962e+00 4.0861202667043789e-01 1.9839199778372845e+00 -5.9622896859042582e-02 4.3466777446229505e+00 1.2428054656927745e+00 -1.6952067418118697e+00 -2.4122476676742326e+00 1.1992413618110517e+01 1.3827452762426373e+00 1.4039204343524578e+00 -1.0683552880056374e-01 2.4114207600675623e+00 1.4292941703569002e+00 -2.1681775936752254e+00 3.6647339894455198e+00 -2.7273820509881821e+00 6.8375391282636727e-02 -2.3491246310386672e-02 -2.1350330493042002e+00 
        </Neuron>
        <Neuron NSynapses="29">
          1.6879304688456522e+00 3.2506672081923638e-01 -1.6287277382637597e+00 2.1053204844697204e-01 -4.0401263198434256e-01 -6.1637855865709490e-01 1.2969636433052338e+00 -2.0016158211137967e+00 -3.5969774903557089e-01 -1.3777479529401664e+00 -1.1551185711907077e+00 -5.7674470153401991e-01 4.1107456128082831e-01 -2.5435917443844520e+00 2.3377505549055508e-01 1.7224022958079284e+00 1.8237011094471467e+00 -9.2267880086817378e-01 7.7747303817710292e-02 -6.3802421175903434e-01 4.1065123925642277e-01 3.3806062192171743e-01 3.7954664623194043e+00 -1.1569661359651982e+00 1.8810949440181071e+00 -1.2134431927303990e+00 -8.2709202936234760e+00 6.7331035316569275e-03 9.1043464854891587e-01 
        </Neuron>
        <Neuron NSynapses="29">
          -1.8983271024848445e+00 -2.5226631419912513e+00 -2.1047094431135555e-01 4.7340801028655816e-01 1.9872625890789306e-01 3.5755722473750184e-01 -5.6865035218107907e-01 -2.0471127369536744e+00 7.4348566334763444e-01 -5.7915919352564493e-01 -5.9203017694902960e-01 4.6776850204226711e-01 -3.9793097441655809e+00 -2.3766190255836768e+00 -8.4880968056514372e-01 -8.4332190359029735e-01 -1.1485509648073723e-01 3.6112327676489397e-01 3.5635359514232130e+00 -4.7883692229970831e-01 -2.7438980853447812e+00 -1.2076574550172514e+00 2.0053522910793338e+00 -2.9787795529587915e+00 -4.9580975976393504e-01 -1.7110264705728958e-02 1.4173860524736781e+00 -4.0334048791051758e-01 8.0713719200938283e-01 
        </Neuron>
        <Neuron NSynapses="29">
          2.6612098535655776e-01 1.7492205606491242e+00 -1.0589684552351473e-01 -5.0592363810104191e-01 -6.0057418223779369e+00 1.1665237609504502e+00 6.8785935871385440e-01 8.5215542888111706e-01 3.9904832802411017e+00 -6.5320189925632688e-01 -1.0175067249211571e+00 -7.5932259939241686e-01 -3.9169654885236200e+00 5.5320584048011368e-01 7.1168734987771798e-01 -2.4368308600368884e+00 2.4209092994516027e-01 -2.7623009327748473e+00 -1.6928690495784744e+00 1.1318418685889378e+00 2.9210548824852460e+00 -3.3022283981031042e+00 1.1841247683925449e+00 2.6012083620237334e+00 4.7041339806024407e-01 -5.2296061424075413e-01 -5.6620382362841237e+00 -7.0827625876770633e-02 -4.6660857462116528e-01 
        </Neuron>
        <Neuron NSynapses="29">
          1.7011488492710707e+00 7.9987429288652501e-01 5.5163394468085869e-01 1.2002345377583989e-01 4.6299937114674944e-01 -5.2755810381194801e-01 2.8154559451858652e-01 1.7410913251903153e+00 -7.7382648545036314e-01 5.4887759226704913e-01 -1.6589505661743322e+00 1.4999540097170747e+00 -5.9432912620437983e-02 1.7616303860351894e+00 -2.2576054013506890e+00 1.0799120500348884e+00 7.8695525123168308e-01 -1.3833049030131386e+00 8.8857811354788008e-01 -5.8038980695004849e-02 -1.6576106240760056e+00 -1.9234078925941829e+00 6.3766472049219858e-01 -4.4762374236045321e-01 -1.0838170107543761e+00 3.6292837658336208e-01 -1.2296721935280742e-02 -6.0500920532274103e-03 -3.3977922738792188e-02 
        </Neuron>
        <Neuron NSynapses="29">
          3.7183709898541646e+00 -8.9493241212740016e-01 -2.1491359049072662e+00 3.0377487944307463e-01 -1.0574368519257313e+00 -2.3264329275936810e+00 2.7558811060465965e-01 1.3062349452849223e-01 1.8683848751226209e-01 3.0451987848878492e-01 -4.5091033335442232e-01 -1.0956245022738682e+00 4.8897490867792121e-01 5.0723322889758260e-01 5.9809411298029336e-01 -9.6794988210074442e-02 -7.4968185153335365e-01 -3.5632127792925541e+00 2.4985377894200719e-01 -3.4819071502304932e-01 3.4104612061676154e-01 -5.8075751708376000e-01 -5.1624465302343903e-01 -5.2563282025537561e-01 -9.4815343878124070e-01 -6.3463952757981477e-03 2.8168522727551382e-02 1.1235304138148614e-02 8.1830122230865687e-01 
        </Neuron>
        <Neuron NSynapses="29">
          -1.0951341903911544e+00 1.5473380172018877e-01 4.3882245145853330e-02 5.6541756884325356e-01 -4.0714587683818565e-01 2.0220932973742509e+00 2.2585373944284631e-01 5.6458256651574679e-01 3.5237010216365622e-01 -5.5204862724431667e+00 -6.1108700514613568e-01 1.9561095247220119e+00 3.4866519774346472e-01 -7.8093617726469045e-01 2.0118541156881650e-01 4.8018860075168701e-01 -1.4056757844851075e+00 -5.4313792361888891e-01 1.0388695658544860e+00 -5.0651776743095489e+00 2.4455280194326812e+00 3.5883302702169564e+00 -1.6396014960394651e+00 -1.1725522946211548e+00 -1.0113124496997392e+00 -1.9938910353411545e+00 4.0036834130723120e-02 2.6609968638722083e-02 5.1905608512841483e-02 
        </Neuron>
        <Neuron NSynapses="29">
          2.2120012497115857e-01 -8.4780510844092938e-01 4.1812312100382187e-01 -7.7142783298626298e+00 3.1998944923553713e-01 -7.9892127870019225e-01 -2.5360359484511574e-01 -3.5702978974413475e+00 -1.7960578884921963e+00 1.1368810724667815e+00 -1.5558444264204132e+00 -1.4873778070691079e+00 -1.4999420477831257e-01 -7.6240522943306477e-01 -8.3494204060322819e-01 -2.7325061202952989e+00 1.7936539724886715e+00 9.6338819294167474e-02 1.6171154008862340e-01 -1.5730861442795041e+00 6.1750163053391982e-01 9.2708840734117581e-01 2.0895746197498704e+00 -2.1526715921148362e-01 5.4854507291605337e-01 -1.4237125390111269e+00 4.3476940970094941e-01 -3.9051693762088502e-02 -1.1192220713029241e-02 
        </Neuron>
        <Neuron NSynapses="29">
          1.6377892164358050e+00 3.0179316042420146e+00 1.1467355873195719e+00 -1.6222982194988183e+00 1.5093659034138118e+00 -7.8843358712701173e-01 3.4552407044749751e+00 3.2172782015541596e-01 -4.1769219955632292e-01 8.7870771597371514e-02 3.5241031740279580e+00 1.9626344453025364e+00 1.1532979580946554e+00 -1.1524627547560518e+00 1.8572749153080703e-01 1.6790286002175392e+00 2.0391575928324803e+00 -6.2975833889652417e+00 -9.9429150058446780e-01 1.0834046107488589e+00 1.1178522275894678e+00 -2.1361969123201492e+00 -2.8859435907985898e+00 -9.8474738552982077e-01 -2.7316644768012091e+00 -1.8807975506652557e+00 2.0605282835770975e+00 -5.6457878222597246e-01 -2.8647215292691547e-01 
        </Neuron>
      </Layer>
      <Layer Index="1" NNeurons="30">
        <Neuron NSynapses="1">
          -1.3132638473450061e-02 
        </Neuron>
        <Neuron NSynapses="1">
          2.9404897095923990e-02 
        </Neuron>
        <Neuron NSynapses="1">
          -6.2377262840543742e-02 
        </Neuron>
        <Neuron NSynapses="1">
          3.7025479187609164e-02 
        </Neuron>
        <Neuron NSynapses="1">
          -6.2242467697244709e-02 
        </Neuron>
        <Neuron NSynapses="1">
          -1.2565295340158126e-03 
        </Neuron>
        <Neuron NSynapses="1">
          -2.2024186736228851e-01 
        </Neuron>
        <Neuron NSynapses="1">
          -3.0640855176383465e-02 
        </Neuron>
        <Neuron NSynapses="1">
          -1.8346889772809077e-01 
        </Neuron>
        <Neuron NSynapses="1">
          -2.7165367707127668e-02 
        </Neuron>
        <Neuron NSynapses="1">
          -1.9750280860539876e-01 
        </Neuron>
        <Neuron NSynapses="1">
          1.4368284857580085e-02 
        </Neuron>
        <Neuron NSynapses="1">
          -3.7306316025594782e-02 
        </Neuron>
        <Neuron NSynapses="1">
          2.0129335158927699e-02 
        </Neuron>
        <Neuron NSynapses="1">
          1.7428902365329416e-02 
        </Neuron>
        <Neuron NSynapses="1">
          3.3403768753082687e-02 
        </Neuron>
        <Neuron NSynapses="1">
          -1.1295253454300805e-02 
        </Neuron>
        <Neuron NSynapses="1">
          -6.8961029646196256e-02 
        </Neuron>
        <Neuron NSynapses="1">
          -3.2162824390482951e-02 
        </Neuron>
        <Neuron NSynapses="1">
          -3.5794996164796603e-02 
        </Neuron>
        <Neuron NSynapses="1">
          -2.0544035118636388e-02 
        </Neuron>
        <Neuron NSynapses="1">
          2.7176138803884371e-02 
        </Neuron>
        <Neuron NSynapses="1">
          4.9642917926886659e-02 
        </Neuron>
        <Neuron NSynapses="1">
          1.3113875304893587e-02 
        </Neuron>
        <Neuron NSynapses="1">
          3.7140647299230826e-02 
        </Neuron>
        <Neuron NSynapses="1">
          1.9208226711981774e-02 
        </Neuron>
        <Neuron NSynapses="1">
          6.3238346003406484e-02 
        </Neuron>
        <Neuron NSynapses="1">
          -2.9079543124413698e+00 
        </Neuron>
        <Neuron NSynapses="1">
          -6.9816489777599827e-02 
        </Neuron>
        <Neuron NSynapses="1">
          -2.5431298467599617e-01 
        </Neuron>
      </Layer>
      <Layer Index="2" NNeurons="1">
        <Neuron NSynapses="0"/>
      </Layer>
    </Layout>
  </Weights>
</MethodSetup>
