<?xml version="1.0"?>
<MethodSetup Method="MLP::MLP">
  <GeneralInfo>
    <Info name="TMVA Release" value="4.2.0 [262656]"/>
    <Info name="ROOT Release" value="5.34/36 [336420]"/>
    <Info name="Creator" value="lajoie"/>
    <Info name="Date" value="Thu Jul 11 15:03:16 2019"/>
    <Info name="Host" value="Linux rplay53.rcf.bnl.gov 3.10.0-693.11.6.el7.x86_64 #1 SMP Wed Jan 3 18:09:42 CST 2018 x86_64 x86_64 x86_64 GNU/Linux"/>
    <Info name="Dir" value="/gpfs/mnt/gpfs02/phenix/mpcex/lajoie/Run16/ENERGY_CAL/work/TMVA-v4.2.0/test"/>
    <Info name="Training events" value="20000"/>
    <Info name="TrainingTime" value="2.56114579e+03"/>
    <Info name="AnalysisType" value="Regression"/>
  </GeneralInfo>
  <Options>
    <Option name="NCycles" modified="Yes">20000</Option>
    <Option name="HiddenLayers" modified="Yes">N+20</Option>
    <Option name="NeuronType" modified="Yes">tanh</Option>
    <Option name="RandomSeed" modified="No">1</Option>
    <Option name="EstimatorType" modified="No">MSE</Option>
    <Option name="NeuronInputType" modified="No">sum</Option>
    <Option name="V" modified="Yes">False</Option>
    <Option name="VerbosityLevel" modified="No">Default</Option>
    <Option name="VarTransform" modified="Yes">Norm</Option>
    <Option name="H" modified="Yes">False</Option>
    <Option name="CreateMVAPdfs" modified="No">False</Option>
    <Option name="IgnoreNegWeightsInTraining" modified="No">False</Option>
    <Option name="TrainingMethod" modified="Yes">BFGS</Option>
    <Option name="LearningRate" modified="No">2.000000e-02</Option>
    <Option name="DecayRate" modified="No">1.000000e-02</Option>
    <Option name="TestRate" modified="Yes">6</Option>
    <Option name="EpochMonitoring" modified="No">False</Option>
    <Option name="Sampling" modified="Yes">3.000000e-01</Option>
    <Option name="SamplingEpoch" modified="Yes">8.000000e-01</Option>
    <Option name="SamplingImportance" modified="No">1.000000e+00</Option>
    <Option name="SamplingTraining" modified="No">True</Option>
    <Option name="SamplingTesting" modified="No">False</Option>
    <Option name="ResetStep" modified="No">50</Option>
    <Option name="Tau" modified="No">3.000000e+00</Option>
    <Option name="BPMode" modified="No">sequential</Option>
    <Option name="BatchSize" modified="No">-1</Option>
    <Option name="ConvergenceImprove" modified="Yes">1.000000e-06</Option>
    <Option name="ConvergenceTests" modified="Yes">15</Option>
    <Option name="UseRegulator" modified="Yes">False</Option>
    <Option name="UpdateLimit" modified="No">10000</Option>
    <Option name="CalculateErrors" modified="No">False</Option>
    <Option name="WeightRange" modified="No">1.000000e+00</Option>
  </Options>
  <Variables NVar="9">
    <Variable VarIndex="0" Expression="resum" Label="resum" Title="MPC-EX minipad energy sum" Unit="GeV" Internal="resum" Type="F" Min="3.44321132e-04" Max="7.70500243e-01"/>
    <Variable VarIndex="1" Expression="Cangle" Label="Cangle" Title="entry angle cosine" Unit="" Internal="Cangle" Type="F" Min="9.97402489e-01" Max="9.99407172e-01"/>
    <Variable VarIndex="2" Expression="insat" Label="insat" Title="number of saturated minipads" Unit=" " Internal="insat" Type="I" Min="0.00000000e+00" Max="2.40000000e+01"/>
    <Variable VarIndex="3" Expression="E33" Label="E33" Title="MPC 3x3 energy sum" Unit="GeV" Internal="E33" Type="F" Min="4.00053215e+00" Max="9.07067947e+01"/>
    <Variable VarIndex="4" Expression="in33" Label="in33" Title="valid towers in 3x3 energy sum" Unit=" " Internal="in33" Type="I" Min="6.00000000e+00" Max="7.00000000e+00"/>
    <Variable VarIndex="5" Expression="ifl" Label="ifl" Title="first layer" Unit=" " Internal="ifl" Type="I" Min="0.00000000e+00" Max="4.00000000e+00"/>
    <Variable VarIndex="6" Expression="vtx" Label="vtx" Title="event vertex" Unit="cm" Internal="vtx" Type="F" Min="-3.99943237e+01" Max="3.99993362e+01"/>
    <Variable VarIndex="7" Expression="ffx" Label="ffx" Title="event x position" Unit="cm" Internal="ffx" Type="F" Min="-1.27397537e+01" Max="1.25953884e+01"/>
    <Variable VarIndex="8" Expression="ffy" Label="ffy" Title="event y position" Unit="cm" Internal="ffy" Type="F" Min="-1.27057152e+01" Max="1.24850178e+01"/>
  </Variables>
  <Spectators NSpec="0"/>
  <Classes NClass="1">
    <Class Name="Regression" Index="0"/>
  </Classes>
  <Targets NTrgt="1">
    <Target TargetIndex="0" Expression="pE" Label="pE" Title="pE" Unit="" Internal="pE" Type="F" Min="5.44399929e+00" Max="9.99994049e+01"/>
  </Targets>
  <Transformations NTransformations="1">
    <Transform Name="Normalize">
      <Selection>
        <Input NInputs="10">
          <Input Type="Variable" Label="resum" Expression="resum"/>
          <Input Type="Variable" Label="Cangle" Expression="Cangle"/>
          <Input Type="Variable" Label="insat" Expression="insat"/>
          <Input Type="Variable" Label="E33" Expression="E33"/>
          <Input Type="Variable" Label="in33" Expression="in33"/>
          <Input Type="Variable" Label="ifl" Expression="ifl"/>
          <Input Type="Variable" Label="vtx" Expression="vtx"/>
          <Input Type="Variable" Label="ffx" Expression="ffx"/>
          <Input Type="Variable" Label="ffy" Expression="ffy"/>
          <Input Type="Target" Label="pE" Expression="pE"/>
        </Input>
        <Output NOutputs="10">
          <Output Type="Variable" Label="resum" Expression="resum"/>
          <Output Type="Variable" Label="Cangle" Expression="Cangle"/>
          <Output Type="Variable" Label="insat" Expression="insat"/>
          <Output Type="Variable" Label="E33" Expression="E33"/>
          <Output Type="Variable" Label="in33" Expression="in33"/>
          <Output Type="Variable" Label="ifl" Expression="ifl"/>
          <Output Type="Variable" Label="vtx" Expression="vtx"/>
          <Output Type="Variable" Label="ffx" Expression="ffx"/>
          <Output Type="Variable" Label="ffy" Expression="ffy"/>
          <Output Type="Target" Label="pE" Expression="pE"/>
        </Output>
      </Selection>
      <Class ClassIndex="0">
        <Ranges>
          <Range Index="0" Min="3.4432113170623779e-04" Max="7.7050024271011353e-01"/>
          <Range Index="1" Min="9.9740248918533325e-01" Max="9.9940717220306396e-01"/>
          <Range Index="2" Min="0.0000000000000000e+00" Max="2.4000000000000000e+01"/>
          <Range Index="3" Min="4.0005321502685547e+00" Max="9.0706794738769531e+01"/>
          <Range Index="4" Min="6.0000000000000000e+00" Max="7.0000000000000000e+00"/>
          <Range Index="5" Min="0.0000000000000000e+00" Max="4.0000000000000000e+00"/>
          <Range Index="6" Min="-3.9994323730468750e+01" Max="3.9999336242675781e+01"/>
          <Range Index="7" Min="-1.2739753723144531e+01" Max="1.2595388412475586e+01"/>
          <Range Index="8" Min="-1.2705715179443359e+01" Max="1.2485017776489258e+01"/>
          <Range Index="9" Min="5.4439992904663086e+00" Max="9.9999404907226562e+01"/>
        </Ranges>
      </Class>
    </Transform>
  </Transformations>
  <MVAPdfs/>
  <Weights>
    <Layout NLayers="3">
      <Layer Index="0" NNeurons="10">
        <Neuron NSynapses="29">
          -1.0388598529170994e+00 1.0248044461533616e+00 4.9101883715474515e-01 -4.7762896298118841e-02 -5.2891664760672474e-02 -1.0005523473519593e+00 3.8356931471577299e-01 1.6186502920435946e+00 -1.5703701764809082e+00 1.3424758425940235e+00 -1.0734334762221511e+00 -7.3852403917488396e-01 -1.0026562628431923e+00 -5.6041446238591885e-01 -5.8104880515047841e-01 -1.0873124183758132e+00 -7.3528838187684709e-01 1.6591672766407287e-01 -5.6830473389088165e-01 1.2458751441289524e+00 -8.7237188476016558e-01 -1.4115938660406755e+00 -5.1037773717376067e-01 9.9869012164307847e-01 -4.2199987458871813e-01 -9.3832420626075297e-01 9.2773058359820848e-01 -3.2029227112533126e-01 -2.1590182976704742e+00 
        </Neuron>
        <Neuron NSynapses="29">
          -1.0139547645525986e+00 2.2066410978296385e+00 1.9931912337261863e+00 2.0450585188990416e+00 -5.6595977692078991e-01 2.3845584450765056e+00 -4.7490525078334169e+00 -2.4875245474201249e+00 1.3010801756715149e+00 -5.4580934429200898e+00 9.2031481046045349e-01 -8.2397782670579012e-01 1.4780552573573655e+00 2.4567145120254814e+00 1.4983184346962946e+00 -1.2106042293382808e+00 -1.4365362865140019e+00 2.1503956266469035e-01 -2.3584438004847255e+00 1.0411921949740031e+00 2.6874936885388516e+00 2.5760715548968602e+00 3.1868855972547041e+00 -2.3311726845568508e+00 5.0718627123255908e+00 -1.0912672290822814e+00 1.9462922306682957e+00 4.7907029790645636e-02 -6.4835731809159125e-01 
        </Neuron>
        <Neuron NSynapses="29">
          8.7633469668435748e-01 5.1740185224263813e-01 -1.6998766893551212e+00 2.0133684510340302e-01 1.8892578913633055e-04 7.5529765136287619e-01 -3.4750183251409106e-01 -5.9873036380060329e-01 6.4312516373674156e-01 -1.0483344722191386e+00 1.7237920634470900e+00 3.9123957336286413e-01 5.5879331438101032e-01 -1.2431322875093929e+00 5.3434961719537377e-01 7.6382409006716800e-01 1.0863158924903455e+00 -9.1657788044655811e-02 -5.2716352020566148e-01 -1.0333069821461798e+00 5.4478228088733305e-01 4.2072616069625335e+00 1.8049879214314781e+00 4.0570069934089159e-01 4.4478771544584489e-01 -8.5439927570372809e-01 -8.9502573560719667e-01 5.8226144589001813e-02 2.0324428085826853e+00 
        </Neuron>
        <Neuron NSynapses="29">
          -7.7487156346433428e-01 -2.0312518405904476e+00 -1.5692588374213827e+00 3.1092627036615594e-01 7.7136375153001322e-03 8.9197337201819193e-01 -3.4139875741890457e-01 -1.1208506669312930e+00 5.3398042640403909e-01 -4.2473960660240173e-01 -3.9076511956765325e-01 2.5381165053739156e-02 3.4334821292496120e-01 -1.0584076841297170e+00 -1.7315898858571428e+00 -1.7837711720132352e-01 1.0965926786559812e+00 3.2637422056930293e-02 1.6205197297373430e+00 -4.0596536030152525e-01 -2.2566409789981434e-01 -3.2406223036298681e-01 2.2291962590977957e-01 -2.0207265985504441e+00 5.3333950712082345e-01 -4.2235191501948510e-01 2.5276209119305604e-01 -3.7314389662849012e-01 2.0694650241609081e+00 
        </Neuron>
        <Neuron NSynapses="29">
          -1.1106302290915135e+00 -1.2757478250241361e+00 1.6373007435130194e+00 1.6307794308091753e-01 -2.7195200138040709e+00 2.3421800487907621e-01 -2.9123260384660687e-01 2.5162083345063642e+00 1.4126102583045201e+00 -7.8793097818729618e-01 -8.0574083999153912e-01 -5.3043301724316712e-02 -2.2713627983022286e+00 2.6534910284940966e-01 1.4700230552461926e-01 1.3116054750095360e-01 1.4103341443572623e-01 -3.3088055288224667e+00 -2.3469192208701511e-01 6.5043051253923723e-01 2.2310056532600360e+00 -2.8859848141057216e+00 1.7657318077926848e-01 2.5267200501998217e+00 3.3589994423375167e+00 8.2797522941981422e-02 -1.8223801426226656e+00 -2.5656328879369807e-04 -9.4315954588825568e-01 
        </Neuron>
        <Neuron NSynapses="29">
          1.7112949370850681e+00 3.0376322617519080e+00 3.9718813701968247e-01 8.7067055290345405e-03 1.1777176587984243e-02 -3.2485952113951394e-01 -4.6864692084768886e-02 8.9883625858132465e-01 -2.5862481785556263e-01 4.2139456999382756e-02 -2.6434417267324700e-01 8.1852321666148309e-02 -4.7391421707268067e-01 3.7751046906852065e-01 -1.6642917993729753e+00 4.7323988210420698e-01 2.7790558223692599e-02 8.9058469253794036e-03 -2.9635000579848503e-01 8.5015954399447025e-01 -7.7486347581277248e-01 -4.7902821537516621e-01 2.4970403217509890e-01 -1.9418016865326182e+00 -2.2902685013717053e-01 1.7215774461551914e+00 2.6953905759200074e+00 1.3785727471147190e-02 4.7710803768688370e-01 
        </Neuron>
        <Neuron NSynapses="29">
          -9.7989719022811006e-01 -9.5000997443944579e-01 1.9528712631988376e-01 -2.8152415019688853e-01 6.0375906397315111e-02 -2.1762090765492474e+00 7.5113202478940899e-01 1.3599375456822267e+00 4.9853741898428960e-01 2.5268581140191211e+00 -1.4116516907081913e+00 1.6810052142527215e-02 2.4852045470044393e-01 2.4660440552962264e+00 -8.0395886209879786e-01 7.8516336172562173e-01 -1.2652998642483144e+00 2.5060284288321553e-02 9.5155158329372658e-01 2.0961357468995874e+00 -1.5171876044074402e+00 -6.9171859697180516e-01 -1.1662486297999715e+00 1.0310839453593439e+00 -1.6085087373187921e+00 -5.1538190209274914e-01 -1.2082906601295509e+00 -3.6778971131182524e-02 -2.2867388410452832e-01 
        </Neuron>
        <Neuron NSynapses="29">
          -4.1131127864276005e+00 3.3058068986407635e-01 1.8895065141297798e-01 7.1803771561901930e-01 7.3860218553435941e-02 1.1697461420536445e-01 4.6634869621843204e-02 -7.1545662250937025e-01 -2.7606730634842980e-01 -9.7491395224387975e-02 5.4720075703722448e-01 5.8221303210393600e+00 -6.9366902535888164e-01 3.7736462930561365e-01 -7.3758272052766471e-02 5.4146305667707511e+00 -1.8556118631338749e+00 -5.9006243162730870e-02 1.4699617073076721e-01 -1.6343324307702263e+00 1.2117532883980822e+00 1.5726728825629550e+00 -1.5699426285977505e+00 8.3477387374777923e-01 -3.6769372433028102e-01 -2.7863442698326439e+00 -6.3263060944014429e+00 1.9793075518711019e-02 8.4081423495180185e-01 
        </Neuron>
        <Neuron NSynapses="29">
          1.0832905363314982e+00 -1.8510060886792257e+00 1.1218641842873875e+00 -5.1963412324234382e+00 1.3301376815496606e+00 4.6748293594058443e-01 -9.7254662447844184e-02 -9.6442471382497419e-01 -2.2513922411837064e+00 6.1860316452441244e-01 -5.9267659661313921e-01 -5.4824376363316523e+00 -4.8004125091353983e-01 -2.8712715200052280e-01 -4.2623191243117908e-01 -2.4923544485854450e+00 1.1526892864927856e+00 -8.8773610003491299e-01 9.5890688864658749e-02 -1.4825360302026414e+00 6.2892543296526937e-01 2.7800709060071949e-01 1.6375557089817927e-01 -1.2619583333558229e-01 -4.8098281387809845e+00 -1.1250768245030047e+00 -2.7374268967448501e+00 -5.5951689870913073e-03 -4.4419956776226455e-01 
        </Neuron>
        <Neuron NSynapses="29">
          9.4170557438033597e-01 5.8381395234559585e-01 -1.7092924715079491e-02 -2.9117725874546885e+00 -7.0075908771110973e-01 -1.9149076629425366e+00 4.1462659689425259e+00 4.9904999686293777e-01 -7.0897312845617300e-01 3.7102008184132949e+00 3.0416149288266485e+00 2.7179383389110123e+00 2.0896236270986615e+00 2.8447077003202398e-02 1.5920992107267123e-01 1.0616879031376785e+00 1.5142185018320287e+00 1.8010321521829333e+00 -1.5346708413398208e-01 7.9258806941122728e-01 7.5775508449260331e-01 -1.0891460871364420e+00 -1.2133663151251703e+00 -1.0896053350477719e+00 -8.6385001141839057e-01 -4.0255391767570375e-01 7.4781716110348817e-01 -6.0196201541233174e-01 1.4019827099266280e+00 
        </Neuron>
      </Layer>
      <Layer Index="1" NNeurons="30">
        <Neuron NSynapses="1">
          3.1039903491863838e-02 
        </Neuron>
        <Neuron NSynapses="1">
          2.1071636865326489e-02 
        </Neuron>
        <Neuron NSynapses="1">
          1.9358261682697251e-02 
        </Neuron>
        <Neuron NSynapses="1">
          3.0604317151308819e-01 
        </Neuron>
        <Neuron NSynapses="1">
          3.1324128105415632e+00 
        </Neuron>
        <Neuron NSynapses="1">
          1.0230350149317965e-01 
        </Neuron>
        <Neuron NSynapses="1">
          -8.1109718205499404e-01 
        </Neuron>
        <Neuron NSynapses="1">
          1.9038233206599003e-01 
        </Neuron>
        <Neuron NSynapses="1">
          -3.1977448937706293e-02 
        </Neuron>
        <Neuron NSynapses="1">
          -1.5530611461480481e-01 
        </Neuron>
        <Neuron NSynapses="1">
          -1.0967600580179426e-01 
        </Neuron>
        <Neuron NSynapses="1">
          2.0638572076816092e-01 
        </Neuron>
        <Neuron NSynapses="1">
          -8.8939551421039154e-02 
        </Neuron>
        <Neuron NSynapses="1">
          1.0526201983625527e-02 
        </Neuron>
        <Neuron NSynapses="1">
          5.0666209395490575e-02 
        </Neuron>
        <Neuron NSynapses="1">
          -1.1452240579445805e-01 
        </Neuron>
        <Neuron NSynapses="1">
          -4.2160928833939260e-03 
        </Neuron>
        <Neuron NSynapses="1">
          -2.7829013468867614e+00 
        </Neuron>
        <Neuron NSynapses="1">
          -7.8242847888615311e-02 
        </Neuron>
        <Neuron NSynapses="1">
          5.6029865342637980e-03 
        </Neuron>
        <Neuron NSynapses="1">
          4.6522271745720593e-02 
        </Neuron>
        <Neuron NSynapses="1">
          -5.1028407831952054e-02 
        </Neuron>
        <Neuron NSynapses="1">
          6.4552834742589132e-02 
        </Neuron>
        <Neuron NSynapses="1">
          1.3430647070187495e-02 
        </Neuron>
        <Neuron NSynapses="1">
          1.3233825642505956e-01 
        </Neuron>
        <Neuron NSynapses="1">
          -2.5133331869500036e-02 
        </Neuron>
        <Neuron NSynapses="1">
          4.1589415196107586e-02 
        </Neuron>
        <Neuron NSynapses="1">
          -3.3200256299038422e+00 
        </Neuron>
        <Neuron NSynapses="1">
          4.2191855427541933e-02 
        </Neuron>
        <Neuron NSynapses="1">
          6.7418047101760803e-01 
        </Neuron>
      </Layer>
      <Layer Index="2" NNeurons="1">
        <Neuron NSynapses="0"/>
      </Layer>
    </Layout>
  </Weights>
</MethodSetup>
